<?xml version="1.0" encoding="UTF-8"?>
<BIF VERSION="0.3"  xmlns="http://www.cs.ubc.ca/labs/lci/fopi/ve/XMLBIFv0_3"
	xmlns:xsi="http://www.w3.org/2001/XMLSchema-instance"
	xsi:schemaLocation="http://www.cs.ubc.ca/labs/lci/fopi/ve/XMLBIFv0_3 http://www.cs.ubc.ca/labs/lci/fopi/ve/XMLBIFv0_3/XMLBIFv0_3.xsd">
<NETWORK>
<NAME>Untitled</NAME>
<PROPERTY>detailed = </PROPERTY>
<PROPERTY>short = </PROPERTY>

<VARIABLE TYPE="nature">
	<NAME>B</NAME>
	<OUTCOME>T</OUTCOME>
	<OUTCOME>F</OUTCOME>
	<PROPERTY>position = (7256.86376953125, 5065.423828125)</PROPERTY>
</VARIABLE>

<VARIABLE TYPE="nature">
	<NAME>I</NAME>
	<OUTCOME>T</OUTCOME>
	<OUTCOME>F</OUTCOME>
	<PROPERTY>position = (7480.7099609375, 5072.29638671875)</PROPERTY>
</VARIABLE>

<VARIABLE TYPE="nature">
	<NAME>M</NAME>
	<OUTCOME>T</OUTCOME>
	<OUTCOME>F</OUTCOME>
	<PROPERTY>position = (7727.13671875, 5073.2783203125)</PROPERTY>
</VARIABLE>

<VARIABLE TYPE="nature">
	<NAME>G</NAME>
	<OUTCOME>T</OUTCOME>
	<OUTCOME>F</OUTCOME>
	<PROPERTY>position = (7472.72802734375, 5298.90966796875)</PROPERTY>
</VARIABLE>

<VARIABLE TYPE="nature">
	<NAME>J</NAME>
	<OUTCOME>T</OUTCOME>
	<OUTCOME>F</OUTCOME>
	<PROPERTY>position = (7472.78271484375, 5474.57568359375)</PROPERTY>
</VARIABLE>

<VARIABLE TYPE="nature">
	<NAME>P</NAME>
	<OUTCOME>T</OUTCOME>
	<OUTCOME>F</OUTCOME>
	<PROPERTY>position = (7351.0, 5367.0)</PROPERTY>
</VARIABLE>

<DEFINITION>
	<FOR>B</FOR>
	<TABLE>0.9 0.1</TABLE>
</DEFINITION>

<DEFINITION>
	<FOR>I</FOR>
	<GIVEN>B</GIVEN>
	<GIVEN>M</GIVEN>
	<TABLE>0.9 0.1 0.5 0.5 0.5 0.5 0.1 0.9</TABLE>
</DEFINITION>

<DEFINITION>
	<FOR>M</FOR>
	<TABLE>0.1 0.9</TABLE>
</DEFINITION>

<DEFINITION>
	<FOR>G</FOR>
	<GIVEN>B</GIVEN>
	<GIVEN>I</GIVEN>
	<GIVEN>M</GIVEN>
	<TABLE>0.9 0.1 0.8 0.2 0.0 1.0 0.0 1.0 0.2 0.8 0.1 0.9 0.0 1.0 0.0 1.0</TABLE>
</DEFINITION>

<DEFINITION>
	<FOR>J</FOR>
	<GIVEN>G</GIVEN>
	<GIVEN>P</GIVEN>
	<TABLE>0.0 1.0 0.9 0.1 0.0 1.0 0.0 1.0</TABLE>
</DEFINITION>

<DEFINITION>
	<FOR>P</FOR>
	<TABLE>1.0E-5 0.99999</TABLE>
</DEFINITION>
</NETWORK>
</BIF>
